// #### Generated By: http://www.cufonfonts.com ####
/*!
 * The following copyright notice may not be removed under any circumstances.
 * 
 * Copyright:
 * (c) 2003 Nate Piekos. www.blambot.com
 */
Cufon.registerFont({"w":495,"face":{"font-family":"BadaBoom BB","font-weight":400,"font-stretch":"normal","units-per-em":"1024","panose-1":"2 11 6 3 5 3 2 2 2 4","ascent":"819","descent":"-205","x-height":"24","cap-height":"1","bbox":"-119 -904 1049.01 185","underline-thickness":"0","underline-position":"0","unicode-range":"U+0020-U+007A"},"glyphs":{" ":{"w":198},"!":{"d":"-36,-41v2,-75,112,-157,193,-112v92,51,-28,165,-100,170v-49,3,-94,-15,-93,-58xm417,-750v-107,192,-152,280,-216,482r-139,-6r146,-511","w":300},"\"":{"d":"315,-807v-43,116,-72,221,-89,316r-193,30r97,-332xm571,-807v-43,116,-72,221,-89,316r-193,30r97,-332"},"#":{"d":"197,-706r172,-32v-17,65,-33,130,-48,196r95,-6r28,-158r172,-32v-17,60,-32,120,-45,181r131,-8r-26,151r-137,5v-7,29,-12,58,-17,86r127,-8r-17,151r-135,6r-17,131r-159,44r29,-168v-23,1,-56,4,-101,7v-7,39,-12,78,-16,117r-159,44r26,-149r-97,9r-10,-152r133,-8r15,-83v-31,2,-63,5,-96,9r-2,-152r124,-8xm289,-394v-3,19,-9,48,-17,86r103,-6r16,-87v-23,1,-57,4,-102,7","w":688},"$":{"d":"257,-262v-32,0,-130,23,-162,23v-59,0,-89,-25,-90,-76v-1,-61,33,-137,104,-229r-2,-241r113,-39v-2,51,-4,106,-5,165v15,-13,31,-25,48,-38r-1,-139r113,-40r-3,129v95,-10,110,112,93,218r-151,58v-2,-81,-67,-44,-100,-5v-26,30,-41,79,16,79v23,0,97,-14,120,-14v66,0,102,26,109,78v8,63,-22,134,-90,212r5,196r-103,58r-2,-167v-19,13,-38,23,-55,29r5,132r-103,58r-1,-169v-34,0,-66,-8,-97,-25v17,-40,43,-99,80,-177v62,50,184,4,200,-51v0,-17,-14,-25,-41,-25","w":470},"%":{"d":"599,-747r152,49r-236,289v128,-40,283,20,253,162v-28,134,-220,255,-382,188v-39,-16,-63,-45,-74,-82r-120,169r-150,-28r250,-336v-128,57,-313,1,-280,-152v29,-136,230,-261,389,-183v40,20,64,52,72,93xm480,-214v-44,29,-29,88,31,88v48,0,114,-66,63,-102v-30,-22,-66,-5,-94,14xm294,-470v-3,-51,-76,-47,-111,-18v-38,31,-37,95,32,88v35,-4,81,-32,79,-70","w":779},"&":{"d":"-33,-169v0,-109,81,-204,160,-248v-107,-71,-73,-207,24,-281v77,-59,178,-90,280,-50v38,15,64,40,80,73r-168,118v-29,-54,-129,-12,-130,35v-1,55,43,53,108,46r259,-27r12,150v-11,0,-43,2,-96,6v69,182,-121,346,-293,360v-123,10,-236,-65,-236,-182xm315,-334v-82,-3,-160,29,-171,97v-14,86,110,97,166,49v33,-29,52,-61,32,-109v-7,-17,-16,-29,-27,-37","w":579},"'":{"d":"324,-807v-43,116,-72,221,-89,316r-193,30r97,-332","w":247},"(":{"d":"424,-774v-143,143,-235,283,-268,422v-40,165,22,257,151,368r-151,145v-141,-155,-207,-287,-168,-498v33,-180,133,-368,293,-567","w":356},")":{"d":"-53,31v142,-142,234,-282,267,-421v39,-164,-22,-258,-149,-369r150,-145v141,155,207,287,169,498v-32,181,-133,369,-294,567","w":390},"*":{"d":"450,-631r-116,71r89,64r-82,88v-7,-5,-27,-20,-60,-46v-3,28,-6,56,-8,84r-113,20r15,-109r-85,58r-57,-82r111,-70r-88,-59r69,-100r78,57r14,-100r108,-1r-16,99r103,-65","w":416},"+":{"d":"356,-261v-35,2,-72,5,-109,9v-5,31,-7,62,-7,91r-133,21r14,-95v-26,4,-53,9,-82,15r-8,-153r111,-13r15,-95r143,-16v-12,40,-20,72,-25,95r87,-10","w":374},",":{"d":"223,-169v-58,115,-102,218,-131,309r-189,4r139,-324","w":256},"-":{"d":"360,-261v-121,9,-226,23,-315,41r-10,-153r331,-39","w":386},"\u2010":{"d":"360,-261v-121,9,-226,23,-315,41r-10,-153r331,-39","w":386},".":{"d":"2,-41v0,-63,84,-123,151,-123v38,0,75,22,75,61v0,63,-84,121,-151,121v-40,0,-75,-22,-75,-59","w":294},"\/":{"d":"478,-747r151,49v-225,269,-411,511,-558,726r-150,-28","w":542},"0":{"d":"144,24v-162,0,-200,-231,-152,-402v46,-165,190,-404,363,-404v161,0,199,233,152,404v-45,163,-192,402,-363,402xm143,-305v-21,77,-3,166,75,161v120,-8,182,-174,161,-318v-7,-48,-28,-72,-60,-72v-75,-2,-156,155,-176,229"},"1":{"d":"396,-738v-69,261,-113,492,-134,695r-168,44r88,-517r-131,20r27,-190","w":346},"2":{"d":"312,-470v16,-41,8,-94,-35,-94v-29,0,-44,23,-46,70r-186,33v31,-148,90,-240,176,-278v141,-62,289,70,283,197v-7,136,-117,232,-245,286v-57,24,-92,50,-107,75r260,-17r-22,187r-438,23v-8,-228,71,-286,252,-387v60,-33,96,-64,108,-95","w":482},"3":{"d":"168,-165v44,-5,81,-27,91,-67v0,-30,-32,-45,-97,-45v-35,0,-82,4,-141,12r34,-168r174,-117v-57,5,-113,11,-168,18r12,-190r403,-23v-9,49,-20,124,-35,224v-42,1,-97,31,-165,88v125,19,187,68,187,147v0,196,-474,498,-493,109r185,-26v-6,17,-7,41,13,38","w":470},"4":{"d":"293,-644r170,-30v-33,133,-58,239,-73,317r48,-3r-21,187r-59,1v-7,45,-13,89,-17,133r-158,40r28,-166v-65,4,-130,10,-196,18r-40,-85r135,-483r189,-28v-55,143,-102,277,-141,400r85,-5","w":456},"5":{"d":"267,-285v4,-93,-174,-62,-252,-45v17,-99,42,-229,77,-392r370,-25r-20,187v-73,3,-148,6,-227,10v-3,11,-6,26,-10,46v227,-1,291,115,205,275v-51,95,-201,228,-303,228v-107,0,-133,-137,-113,-262r178,12v-7,22,-15,52,8,55v43,-7,85,-42,87,-89","w":452},"6":{"d":"158,-3v-152,0,-203,-207,-165,-376v36,-158,170,-377,334,-376v69,0,120,38,153,113r-119,148v-12,-15,-27,-47,-48,-48v-41,0,-84,42,-129,126v125,-51,307,-15,268,141v-29,114,-165,272,-294,272xm198,-164v39,0,107,-36,100,-66v0,-20,-14,-45,-34,-44v-1,2,-101,23,-127,34v6,51,26,76,61,76","w":480},"7":{"d":"467,-759r-295,743r-163,17r204,-539r-179,15r39,-189","w":368},"8":{"d":"538,-625v0,89,-46,132,-119,185v70,40,100,104,83,194v-24,129,-176,248,-321,259v-121,9,-224,-57,-225,-171v-1,-110,88,-215,174,-259v-111,-74,-46,-217,45,-286v117,-88,363,-85,363,78xm357,-541v-3,-51,-77,-48,-112,-19v-38,31,-37,96,31,89v37,-4,83,-31,81,-70xm344,-267v0,-80,-120,-75,-169,-30v-25,23,-40,47,-40,76v2,78,120,74,168,29v26,-24,41,-47,41,-75","w":526},"9":{"d":"279,-283v-149,31,-291,-53,-259,-214v26,-130,177,-248,322,-260v121,-10,223,60,225,173v0,47,-19,92,-46,140v-88,158,-153,306,-206,437r-156,-29xm195,-461v0,65,100,59,139,22v20,-18,31,-36,31,-59v0,-64,-96,-60,-136,-24v-21,19,-34,38,-34,61","w":518},":":{"d":"-18,-167v0,-63,84,-123,151,-123v38,0,75,22,75,61v0,63,-84,122,-151,122v-39,0,-75,-22,-75,-60xm40,-438v0,-63,84,-123,151,-123v38,0,75,22,75,61v0,63,-84,122,-151,122v-39,0,-75,-22,-75,-60","w":240},";":{"d":"38,-338v0,-61,85,-123,151,-123v40,0,75,25,75,62v0,62,-85,121,-151,121v-39,0,-75,-22,-75,-60xm204,-169v-58,115,-102,218,-131,309r-189,4r139,-324","w":260},"=":{"d":"372,-380v-120,9,-225,23,-316,41r-9,-152r332,-40xm345,-161v-107,7,-212,20,-316,40r-9,-152r331,-40","w":380},"?":{"d":"44,-41v2,-75,114,-159,196,-111v88,52,-30,164,-102,169v-48,3,-96,-15,-94,-58xm103,-707v104,-31,189,-47,256,-47v91,0,136,31,135,94v-1,79,-44,158,-130,237v-47,43,-124,98,-230,163v7,-21,-27,-111,-20,-132v67,-24,196,-88,203,-144v2,-18,-16,-28,-51,-30v-35,-2,-93,10,-172,37","w":434},"@":{"d":"567,-151v-104,70,-309,66,-313,-75v-4,-122,156,-246,279,-263v31,-4,61,-5,91,0r1,-6v54,-9,106,9,160,-2r-87,350v85,-61,136,-118,160,-169v83,-180,-135,-274,-307,-274v-205,0,-363,100,-366,298v0,59,17,127,52,204r-201,105v-26,-92,-39,-175,-39,-248v3,-333,236,-507,569,-515v218,-5,485,109,483,295v0,67,-34,152,-102,253v-57,84,-152,153,-287,207r-107,-77xm547,-262v7,-61,-85,-51,-113,-16v-35,25,-42,85,16,85v39,0,93,-34,97,-69","w":1025},"A":{"d":"-119,13v98,-250,177,-491,238,-723r304,-51v-35,202,-50,441,-47,717r-212,49r15,-125r-67,13r-21,88xm195,-254r45,-378r-94,387","w":408},"B":{"d":"315,-394v81,-4,122,18,122,87v0,110,-116,207,-208,256v-76,41,-159,59,-263,53v26,-137,55,-320,86,-551v9,-65,16,-117,19,-154v55,-7,203,-51,277,-51v88,0,131,31,131,94v0,89,-55,177,-164,266xm177,-287v-5,25,-11,60,-17,103v94,-29,141,-61,141,-98v0,-13,-12,-20,-35,-20v-21,0,-50,5,-89,15xm203,-423v55,-37,93,-68,111,-125v0,-11,-9,-17,-26,-17v-13,0,-32,3,-56,10","w":451},"C":{"d":"157,-3v-153,0,-206,-208,-166,-376v38,-157,171,-377,334,-376v69,0,120,38,153,113r-113,124v-101,-97,-203,120,-224,207v-20,76,0,156,76,156v35,0,71,-26,109,-77r32,119v-66,73,-133,110,-201,110","w":404},"D":{"d":"266,-745v157,0,224,134,193,284v-47,223,-270,435,-507,462r119,-708v77,-25,142,-38,195,-38xm144,-171v67,-61,165,-189,165,-290v0,-57,-32,-84,-95,-81v-31,131,-54,254,-70,371","w":428},"E":{"d":"212,-557v-10,37,-17,73,-25,112r160,-34r-9,138v-76,13,-136,25,-179,35r-14,79r186,-27r-13,186v-96,8,-218,31,-365,69r119,-717r333,-48r-13,185v-65,6,-125,13,-180,22","w":369},"F":{"d":"213,-557r-24,109r175,-37r-9,140v-69,11,-133,23,-194,37v-16,89,-29,178,-38,265r-171,44r117,-717r342,-48r-12,185v-67,6,-129,13,-186,22","w":370},"G":{"d":"514,-441v-6,221,-180,465,-372,465v-159,0,-198,-221,-152,-389v44,-160,188,-391,357,-390v71,0,122,39,151,118r-111,119v-12,-18,-30,-27,-53,-27v-111,0,-195,180,-204,312v-7,101,116,122,172,51v19,-24,39,-51,52,-86v-49,10,-95,20,-137,31r32,-148","w":489},"H":{"d":"82,-706r185,-32v-33,127,-60,243,-81,348r83,-17r51,-299r185,-32v-71,273,-115,504,-134,695r-172,44r46,-272r-85,18v-13,82,-22,152,-27,210r-172,44","w":442},"I":{"d":"102,-706r172,-32v-69,267,-115,499,-136,695r-159,44","w":223},"J":{"d":"213,-706r170,-32v-69,273,-113,505,-134,695r-154,43r-174,-36r87,-176r116,19","w":333},"K":{"d":"80,-706r172,-32v-16,59,-27,105,-34,139v58,-51,111,-99,159,-146r126,82r-197,175r110,407r-180,96r-70,-377v-21,107,-37,214,-50,319r-158,44","w":440},"L":{"d":"83,-706r172,-32v-48,185,-85,355,-111,511r176,-27r-15,186v-91,8,-206,31,-345,69","w":334},"M":{"d":"-88,6v90,-228,159,-460,206,-696r239,-39r-34,367r93,-339r230,-40v-32,262,-45,455,-40,691r-205,36r36,-438r-131,485r-110,15r66,-616r-142,546","w":643},"N":{"d":"92,-703r173,-35v-4,138,-3,314,22,422r68,-390r172,-32v-69,267,-115,499,-136,695r-158,44r-80,-229v-14,79,-25,155,-33,229r-160,48","w":466},"O":{"d":"144,24v-162,0,-200,-231,-152,-402v46,-165,190,-404,363,-404v161,0,199,233,152,404v-45,163,-192,402,-363,402xm143,-305v-21,77,-3,166,75,161v120,-8,182,-174,161,-318v-7,-48,-28,-72,-60,-72v-75,-2,-156,155,-176,229"},"P":{"d":"77,-707v103,-31,188,-47,254,-47v90,0,134,31,133,94v-2,126,-108,256,-318,391v-15,81,-25,157,-32,226r-159,44r68,-371v39,-218,57,-330,54,-337xm179,-436v67,-37,108,-60,124,-110v0,-11,-8,-17,-25,-17v-16,0,-41,5,-75,16","w":368},"Q":{"d":"149,24v-161,2,-200,-231,-153,-402v45,-163,193,-404,364,-404v110,0,173,124,173,251v0,117,-35,233,-104,348v3,28,16,85,38,172r-144,91r-22,-115v-53,39,-104,59,-152,59xm148,-305v-20,78,-3,162,75,161v17,0,35,-5,53,-16r-30,-159r143,-75v6,-67,-9,-159,-61,-159v-73,0,-161,173,-180,248","w":526},"R":{"d":"76,-707v105,-31,190,-47,257,-47v90,0,135,31,134,94v-1,90,-57,180,-170,271v9,25,48,105,116,239r-157,141r-108,-276v-16,87,-28,168,-36,242r-158,44xm172,-413v48,-27,114,-72,126,-129v0,-15,-10,-22,-29,-22v-15,0,-38,5,-67,15","w":408},"S":{"d":"230,-262v-59,-2,-170,45,-220,9v-25,-18,-33,-44,-32,-81v4,-125,251,-416,372,-414v87,-16,104,116,88,219r-151,58v-2,-81,-67,-44,-100,-5v-26,31,-42,79,16,79v33,0,93,-16,126,-15v72,2,106,30,102,96v-9,136,-115,238,-222,301v-73,43,-145,48,-218,6v17,-40,43,-99,80,-177v61,50,183,4,200,-51v0,-17,-14,-25,-41,-25","w":445},"T":{"d":"450,-748r-6,186v-47,3,-91,6,-133,10v-44,185,-74,354,-89,509r-169,44r92,-532r-107,19r-12,-187","w":365},"U":{"d":"88,-706r171,-32v-46,175,-80,331,-102,470r95,-40r70,-398r171,-32v-69,273,-114,505,-135,695r-160,44r20,-111r-254,111","w":435},"V":{"d":"496,-738v-79,217,-150,450,-213,699r-266,48v35,-183,33,-466,37,-694r200,-45r-85,638r146,-613","w":398},"W":{"d":"686,-744v-90,239,-157,471,-201,698r-224,38r37,-367r-93,340r-213,39v32,-251,48,-481,47,-690r190,-36r-39,438r130,-486r102,-15r-69,617r139,-546","w":590},"X":{"d":"366,-70r-159,99r-36,-196r-95,173r-174,-15r226,-357v-26,-109,-53,-206,-81,-291r141,-106r55,215r130,-204r130,46v-71,101,-142,213,-214,335","w":405},"Y":{"d":"339,-721r161,28v-144,253,-258,481,-342,686r-154,-10r106,-223r-84,-402r195,-90v-4,73,-7,176,3,253","w":387},"Z":{"d":"510,-544v-34,32,-179,195,-249,270v-36,39,-61,70,-76,92r236,-16r-21,187v-173,5,-317,15,-432,31r1,-185v28,-33,84,-94,167,-183r173,-185v-57,5,-119,12,-185,23r7,-189r405,-32","w":487},"\\":{"d":"214,-747r240,747r-162,28v-56,-213,-139,-455,-250,-726","w":504},"a":{"d":"-119,13v98,-250,177,-491,238,-723r304,-51v-35,202,-50,441,-47,717r-212,49r15,-125r-67,13r-21,88xm195,-254r45,-378r-94,387","w":408},"b":{"d":"315,-394v81,-4,122,18,122,87v0,110,-116,207,-208,256v-76,41,-159,59,-263,53v26,-137,55,-320,86,-551v9,-65,16,-117,19,-154v55,-7,203,-51,277,-51v88,0,131,31,131,94v0,89,-55,177,-164,266xm177,-287v-5,25,-11,60,-17,103v94,-29,141,-61,141,-98v0,-13,-12,-20,-35,-20v-21,0,-50,5,-89,15xm203,-423v55,-37,93,-68,111,-125v0,-11,-9,-17,-26,-17v-13,0,-32,3,-56,10","w":451},"c":{"d":"157,-3v-153,0,-206,-208,-166,-376v38,-157,171,-377,334,-376v69,0,120,38,153,113r-113,124v-101,-97,-203,120,-224,207v-20,76,0,156,76,156v35,0,71,-26,109,-77r32,119v-66,73,-133,110,-201,110","w":404},"d":{"d":"266,-745v157,0,224,134,193,284v-47,223,-270,435,-507,462r119,-708v77,-25,142,-38,195,-38xm144,-171v67,-61,165,-189,165,-290v0,-57,-32,-84,-95,-81v-31,131,-54,254,-70,371","w":428},"e":{"d":"212,-557v-10,37,-17,73,-25,112r160,-34r-9,138v-76,13,-136,25,-179,35r-14,79r186,-27r-13,186v-96,8,-218,31,-365,69r119,-717r333,-48r-13,185v-65,6,-125,13,-180,22","w":369},"f":{"d":"213,-557r-24,109r175,-37r-9,140v-69,11,-133,23,-194,37v-16,89,-29,178,-38,265r-171,44r117,-717r342,-48r-12,185v-67,6,-129,13,-186,22","w":370},"g":{"d":"514,-441v-6,221,-180,465,-372,465v-159,0,-198,-221,-152,-389v44,-160,188,-391,357,-390v71,0,122,39,151,118r-111,119v-12,-18,-30,-27,-53,-27v-111,0,-195,180,-204,312v-7,101,116,122,172,51v19,-24,39,-51,52,-86v-49,10,-95,20,-137,31r32,-148","w":489},"h":{"d":"82,-706r185,-32v-33,127,-60,243,-81,348r83,-17r51,-299r185,-32v-71,273,-115,504,-134,695r-172,44r46,-272r-85,18v-13,82,-22,152,-27,210r-172,44","w":442},"i":{"d":"102,-706r172,-32v-69,267,-115,499,-136,695r-159,44","w":223},"j":{"d":"213,-706r170,-32v-69,273,-113,505,-134,695r-154,43r-174,-36r87,-176r116,19","w":333},"k":{"d":"80,-706r172,-32v-15,59,-27,105,-34,139v58,-51,111,-99,159,-146r126,82r-197,175r111,407r-181,96r-70,-377v-21,107,-37,214,-49,319r-159,44","w":440},"l":{"d":"83,-706r172,-32v-48,185,-85,355,-111,511r176,-27r-15,186v-91,8,-206,31,-345,69","w":334},"m":{"d":"-88,6v90,-228,159,-460,206,-696r239,-39r-34,367r93,-339r230,-40v-32,262,-45,455,-40,691r-205,36r36,-438r-131,485r-110,15r66,-616r-142,546","w":643},"n":{"d":"92,-703r173,-35v-4,138,-3,314,22,422r68,-390r172,-32v-69,267,-115,499,-136,695r-158,44r-80,-229v-14,79,-25,155,-33,229r-160,48","w":466},"o":{"d":"144,24v-162,0,-200,-231,-152,-402v46,-165,190,-404,363,-404v161,0,199,233,152,404v-45,163,-192,402,-363,402xm143,-305v-21,77,-3,166,75,161v120,-8,182,-174,161,-318v-7,-48,-28,-72,-60,-72v-75,-2,-156,155,-176,229"},"p":{"d":"77,-707v103,-31,188,-47,254,-47v90,0,134,31,133,94v-2,126,-108,256,-318,391v-15,81,-25,157,-32,226r-159,44r68,-371v39,-218,57,-330,54,-337xm179,-436v67,-37,108,-60,124,-110v0,-11,-8,-17,-25,-17v-16,0,-41,5,-75,16","w":368},"q":{"d":"149,24v-161,2,-200,-231,-153,-402v45,-163,193,-404,364,-404v110,0,173,124,173,251v0,117,-35,233,-104,348v3,28,16,85,38,172r-144,91r-22,-115v-53,39,-104,59,-152,59xm148,-305v-20,78,-3,162,75,161v17,0,35,-5,53,-16r-30,-159r143,-75v6,-67,-9,-159,-61,-159v-73,0,-161,173,-180,248","w":526},"r":{"d":"76,-707v105,-31,190,-47,257,-47v90,0,135,31,134,94v-1,90,-57,180,-170,271v9,25,48,105,116,239r-157,141r-108,-276v-16,87,-28,168,-36,242r-158,44xm172,-413v48,-27,114,-72,126,-129v0,-15,-10,-22,-29,-22v-15,0,-38,5,-67,15","w":408},"s":{"d":"230,-262v-59,-2,-170,45,-220,9v-25,-18,-33,-44,-32,-81v4,-125,251,-416,372,-414v87,-16,104,116,88,219r-151,58v-2,-81,-67,-44,-100,-5v-26,31,-42,79,16,79v33,0,93,-16,126,-15v72,2,106,30,102,96v-9,136,-115,238,-222,301v-73,43,-145,48,-218,6v17,-40,43,-99,80,-177v61,50,183,4,200,-51v0,-17,-14,-25,-41,-25","w":445},"t":{"d":"450,-748r-6,186v-47,3,-91,6,-133,10v-44,185,-74,354,-89,509r-169,44r92,-532r-107,19r-12,-187","w":365},"u":{"d":"88,-706r171,-32v-46,175,-80,331,-102,470r95,-40r70,-398r171,-32v-69,273,-114,505,-135,695r-160,44r20,-111r-254,111","w":435},"v":{"d":"496,-738v-79,217,-150,450,-213,699r-266,48v35,-183,33,-466,37,-694r200,-45r-85,638r146,-613","w":398},"w":{"d":"686,-744v-90,239,-157,471,-201,698r-224,38r37,-367r-93,340r-213,39v32,-251,48,-481,47,-690r190,-36r-39,438r130,-486r102,-15r-69,617r139,-546","w":590},"x":{"d":"366,-70r-159,99r-36,-196r-95,173r-174,-15r226,-357v-26,-109,-53,-206,-81,-291r141,-106r55,215r130,-204r130,46v-71,101,-142,213,-214,335","w":405,"k":{"y":8}},"y":{"d":"339,-721r161,28v-144,253,-258,481,-342,686r-154,-10r106,-223r-84,-402r195,-90v-4,73,-7,176,3,253","w":387},"z":{"d":"510,-544v-34,32,-179,195,-249,270v-36,39,-61,70,-76,92r236,-16r-21,187v-173,5,-317,15,-432,31r1,-185v28,-33,84,-94,167,-183r173,-185v-57,5,-119,12,-185,23r7,-189r405,-32","w":487},"\u00a0":{"w":198}}});
